digraph Tree {
node [shape=box, style="filled, rounded", color="black", fontname=helvetica] ;
edge [fontname=helvetica] ;
0 [label="petal length (cm) <= 2.6\ngini = 0.67\nsamples = 92\nvalue = [50, 51, 49]\nclass = versicolor", fillcolor="#fdfffe"] ;
1 [label="gini = 0.0\nsamples = 32\nvalue = [50, 0, 0]\nclass = setosa", fillcolor="#e58139"] ;
0 -> 1 [labeldistance=2.5, labelangle=45, headlabel="True"] ;
2 [label="petal length (cm) <= 4.95\ngini = 0.5\nsamples = 60\nvalue = [0, 51, 49]\nclass = versicolor", fillcolor="#f7fefa"] ;
0 -> 2 [labeldistance=2.5, labelangle=-45, headlabel="False"] ;
3 [label="petal width (cm) <= 1.7\ngini = 0.08\nsamples = 30\nvalue = [0, 49, 2]\nclass = versicolor", fillcolor="#41e686"] ;
2 -> 3 ;
4 [label="gini = 0.0\nsamples = 28\nvalue = [0, 49, 0]\nclass = versicolor", fillcolor="#39e581"] ;
3 -> 4 ;
5 [label="gini = 0.0\nsamples = 2\nvalue = [0, 0, 2]\nclass = virginica", fillcolor="#8139e5"] ;
3 -> 5 ;
6 [label="petal width (cm) <= 1.7\ngini = 0.08\nsamples = 30\nvalue = [0, 2, 47]\nclass = virginica", fillcolor="#8641e6"] ;
2 -> 6 ;
7 [label="sepal length (cm) <= 6.05\ngini = 0.48\nsamples = 4\nvalue = [0, 2, 3]\nclass = virginica", fillcolor="#d5bdf6"] ;
6 -> 7 ;
8 [label="petal width (cm) <= 1.55\ngini = 0.44\nsamples = 2\nvalue = [0, 2, 1]\nclass = versicolor", fillcolor="#9cf2c0"] ;
7 -> 8 ;
9 [label="gini = 0.0\nsamples = 1\nvalue = [0, 0, 1]\nclass = virginica", fillcolor="#8139e5"] ;
8 -> 9 ;
10 [label="gini = 0.0\nsamples = 1\nvalue = [0, 2, 0]\nclass = versicolor", fillcolor="#39e581"] ;
8 -> 10 ;
11 [label="gini = 0.0\nsamples = 2\nvalue = [0, 0, 2]\nclass = virginica", fillcolor="#8139e5"] ;
7 -> 11 ;
12 [label="gini = 0.0\nsamples = 26\nvalue = [0, 0, 44]\nclass = virginica", fillcolor="#8139e5"] ;
6 -> 12 ;
}